     -38.000      -44.000        0.000        0.000
     -38.000      -43.500       -0.003        0.000
     -38.000      -43.000       -0.007        0.000
     -38.000      -42.500       -0.010        0.000
     -38.000      -42.000       -0.014        0.000
     -38.000      -41.500       -0.018        0.000
     -38.000      -41.000       -0.022        0.000
     -38.000      -40.500       -0.026        0.000
     -38.000      -40.000       -0.030        0.000
     -38.000      -39.500       -0.034        0.000
     -38.000      -39.000       -0.037        0.000
     -38.000      -38.500       -0.041        0.000
     -38.000      -38.000       -0.045        0.000
     -38.000      -37.500       -0.052        0.000
     -38.000      -37.000       -0.055        0.000
     -38.000      -36.500       -0.058        0.000
     -38.000      -36.000       -0.061        0.000
     -38.000      -35.500       -0.064        0.000
     -38.000      -35.000       -0.066        0.000
     -38.000      -34.500       -0.069        0.000
     -38.000      -34.000       -0.071        0.000
     -38.000      -33.500       -0.074        0.000
     -38.000      -33.000       -0.076        0.000
     -38.000      -32.500       -0.078        0.000
     -38.000      -32.000       -0.081        0.000
     -38.000      -31.500       -0.083        0.000
     -38.000      -31.000       -0.084        0.000
     -38.000      -30.500       -0.088        0.000
     -38.000      -30.000       -0.090        0.000
     -38.000      -29.500       -0.091        0.000
     -38.000      -29.000       -0.093        0.000
     -38.000      -28.500       -0.095        0.000
     -38.000      -28.000       -0.096        0.000
     -38.000      -27.500       -0.098        0.000
     -38.000      -27.000       -0.099        0.000
     -38.000      -26.500       -0.100        0.000
     -38.000      -26.000       -0.102        0.001
     -38.000      -25.500       -0.103        0.003
     -38.000      -25.000       -0.103        0.005
     -38.000      -24.500       -0.104        0.007
     -38.000      -24.000       -0.105        0.009
     -38.000      -23.500       -0.104        0.012
     -38.000      -23.000       -0.104        0.016
     -38.000      -22.500       -0.103        0.019
     -38.000      -22.000       -0.101        0.024
     -38.000      -21.500       -0.099        0.029
     -38.000      -21.000       -0.097        0.034
     -38.000      -20.500       -0.094        0.040
     -38.000      -20.000       -0.090        0.047
     -38.000      -19.500       -0.085        0.054
     -38.000      -19.000       -0.079        0.063
     -38.000      -18.500       -0.072        0.073
     -38.000      -18.000       -0.064        0.084
     -38.000      -17.500       -0.054        0.096
     -38.000      -17.000       -0.031        0.122
     -38.000      -16.500       -0.017        0.139
     -38.000      -16.000       -0.002        0.157
     -38.000      -15.500        0.014        0.176
     -38.000      -15.000        0.032        0.196
     -38.000      -14.500        0.050        0.218
     -38.000      -14.000        0.069        0.239
     -38.000      -13.500        0.089        0.262
     -38.000      -13.000        0.108        0.284
     -38.000      -12.500        0.128        0.307
     -38.000      -12.000        0.147        0.328
     -38.000      -11.500        0.165        0.349
     -38.000      -11.000        0.182        0.369
     -38.000      -10.500        0.198        0.388
     -38.000      -10.000        0.226        0.419
     -38.000       -9.500        0.238        0.434
     -38.000       -9.000        0.249        0.448
     -38.000       -8.500        0.259        0.461
     -38.000       -8.000        0.269        0.474
     -38.000       -7.500        0.278        0.486
     -38.000       -7.000        0.288        0.498
     -38.000       -6.500        0.297        0.510
     -38.000       -6.000        0.308        0.524
     -38.000       -5.500        0.318        0.537
     -38.000       -5.000        0.330        0.552
     -38.000       -4.500        0.342        0.567
     -38.000       -4.000        0.356        0.583
     -38.000       -3.500        0.369        0.599
     -38.000       -3.000        0.398        0.631
     -38.000       -2.500        0.412        0.648
     -38.000       -2.000        0.426        0.665
     -38.000       -1.500        0.440        0.681
     -38.000       -1.000        0.453        0.697
     -38.000       -0.500        0.464        0.711
     -38.000        0.000        0.475        0.725
     -38.000        0.500        0.484        0.737
     -38.000        1.000        0.491        0.747
     -38.000        1.500        0.498        0.756
     -38.000        2.000        0.502        0.763
     -38.000        2.500        0.505        0.769
     -38.000        3.000        0.507        0.774
     -38.000        3.500        0.507        0.777
     -38.000        4.000        0.506        0.779
     -38.000        4.500        0.504        0.780
     -38.000        5.000        0.503        0.781
     -38.000        5.500        0.501        0.782
     -38.000        6.000        0.499        0.783
     -38.000        6.500        0.498        0.785
     -38.000        7.000        0.497        0.787
     -38.000        7.500        0.497        0.790
     -38.000        8.000        0.497        0.793
     -38.000        8.500        0.499        0.797
     -38.000        9.000        0.500        0.802
     -38.000        9.500        0.503        0.807
     -38.000       10.000        0.505        0.812
     -38.000       10.500        0.510        0.820
     -38.000       11.000        0.512        0.825
     -38.000       11.500        0.514        0.829
     -38.000       12.000        0.514        0.832
     -38.000       12.500        0.513        0.834
     -38.000       13.000        0.511        0.834
     -38.000       13.500        0.506        0.833
     -38.000       14.000        0.500        0.829
     -38.000       14.500        0.491        0.824
     -38.000       15.000        0.481        0.816
     -38.000       15.500        0.468        0.806
     -38.000       16.000        0.453        0.794
     -38.000       16.500        0.436        0.780
     -38.000       17.000        0.418        0.765
     -38.000       17.500        0.379        0.728
     -38.000       18.000        0.358        0.710
     -38.000       18.500        0.336        0.691
     -38.000       19.000        0.315        0.673
     -38.000       19.500        0.293        0.654
     -38.000       20.000        0.272        0.636
     -38.000       20.500        0.252        0.618
     -38.000       21.000        0.232        0.601
     -38.000       21.500        0.213        0.585
     -38.000       22.000        0.196        0.571
     -38.000       22.500        0.180        0.558
     -38.000       23.000        0.165        0.546
     -38.000       23.500        0.153        0.536
     -38.000       24.000        0.132        0.518
     -38.000       24.500        0.124        0.513
     -38.000       25.000        0.117        0.509
     -38.000       25.500        0.112        0.507
     -38.000       26.000        0.107        0.505
     -38.000       26.500        0.104        0.504
     -38.000       27.000        0.101        0.504
     -38.000       27.500        0.098        0.504
     -38.000       28.000        0.096        0.505
     -38.000       28.500        0.093        0.505
     -38.000       29.000        0.091        0.506
     -38.000       29.500        0.089        0.507
     -38.000       30.000        0.087        0.507
     -38.000       30.500        0.085        0.508
     -38.000       31.000        0.080        0.506
     -38.000       31.500        0.078        0.507
     -38.000       32.000        0.075        0.507
     -38.000       32.500        0.073        0.508
     -38.000       33.000        0.071        0.508
     -38.000       33.500        0.068        0.509
     -38.000       34.000        0.066        0.509
     -38.000       34.500        0.064        0.510
     -38.000       35.000        0.061        0.510
     -38.000       35.500        0.059        0.511
     -38.000       36.000        0.057        0.511
     -38.000       36.500        0.055        0.512
     -38.000       37.000        0.052        0.512
     -38.000       37.500        0.050        0.513
     -38.000       38.000        0.045        0.511
     -38.000       38.500        0.043        0.512
     -38.000       39.000        0.041        0.512
     -38.000       39.500        0.038        0.513
     -38.000       40.000        0.036        0.513
     -38.000       40.500        0.033        0.513
     -38.000       41.000        0.030        0.513
     -38.000       41.500        0.028        0.513
     -38.000       42.000        0.025        0.514
     -38.000       42.500        0.022        0.513
     -38.000       43.000        0.019        0.513
     -38.000       43.500        0.016        0.513
     -38.000       44.000        0.013        0.513
     -37.500      -44.000        0.000        0.000
     -37.500      -43.500       -0.003        0.000
     -37.500      -43.000       -0.007        0.000
     -37.500      -42.500       -0.010        0.000
     -37.500      -42.000       -0.014        0.000
     -37.500      -41.500       -0.017        0.000
     -37.500      -41.000       -0.021        0.000
     -37.500      -40.500       -0.025        0.000
     -37.500      -40.000       -0.029        0.000
     -37.500      -39.500       -0.033        0.000
     -37.500      -39.000       -0.037        0.000
     -37.500      -38.500       -0.041        0.000
     -37.500      -38.000       -0.044        0.000
     -37.500      -37.500       -0.051        0.000
     -37.500      -37.000       -0.054        0.000
     -37.500      -36.500       -0.057        0.000
     -37.500      -36.000       -0.060        0.000
     -37.500      -35.500       -0.063        0.000
     -37.500      -35.000       -0.066        0.000
     -37.500      -34.500       -0.069        0.000
     -37.500      -34.000       -0.072        0.000
     -37.500      -33.500       -0.074        0.000
     -37.500      -33.000       -0.076        0.000
     -37.500      -32.500       -0.079        0.000
     -37.500      -32.000       -0.081        0.000
     -37.500      -31.500       -0.083        0.000
     -37.500      -31.000       -0.085        0.000
     -37.500      -30.500       -0.089        0.000
     -37.500      -30.000       -0.090        0.000
     -37.500      -29.500       -0.092        0.000
     -37.500      -29.000       -0.094        0.000
     -37.500      -28.500       -0.095        0.000
     -37.500      -28.000       -0.097        0.000
     -37.500      -27.500       -0.098        0.000
     -37.500      -27.000       -0.100        0.000
     -37.500      -26.500       -0.101        0.000
     -37.500      -26.000       -0.102        0.000
     -37.500      -25.500       -0.104        0.002
     -37.500      -25.000       -0.104        0.004
     -37.500      -24.500       -0.105        0.006
     -37.500      -24.000       -0.105        0.008
     -37.500      -23.500       -0.105        0.011
     -37.500      -23.000       -0.105        0.015
     -37.500      -22.500       -0.104        0.019
     -37.500      -22.000       -0.102        0.023
     -37.500      -21.500       -0.100        0.028
     -37.500      -21.000       -0.097        0.033
     -37.500      -20.500       -0.094        0.039
     -37.500      -20.000       -0.090        0.046
     -37.500      -19.500       -0.085        0.054
     -37.500      -19.000       -0.079        0.063
     -37.500      -18.500       -0.072        0.073
     -37.500      -18.000       -0.064        0.084
     -37.500      -17.500       -0.054        0.097
     -37.500      -17.000       -0.030        0.123
     -37.500      -16.500       -0.016        0.140
     -37.500      -16.000       -0.001        0.158
     -37.500      -15.500        0.015        0.177
     -37.500      -15.000        0.033        0.198
     -37.500      -14.500        0.051        0.219
     -37.500      -14.000        0.071        0.241
     -37.500      -13.500        0.090        0.263
     -37.500      -13.000        0.110        0.286
     -37.500      -12.500        0.129        0.308
     -37.500      -12.000        0.148        0.330
     -37.500      -11.500        0.166        0.351
     -37.500      -11.000        0.184        0.371
     -37.500      -10.500        0.200        0.390
     -37.500      -10.000        0.228        0.421
     -37.500       -9.500        0.240        0.436
     -37.500       -9.000        0.252        0.450
     -37.500       -8.500        0.262        0.464
     -37.500       -8.000        0.272        0.476
     -37.500       -7.500        0.281        0.489
     -37.500       -7.000        0.291        0.501
     -37.500       -6.500        0.300        0.513
     -37.500       -6.000        0.311        0.527
     -37.500       -5.500        0.322        0.540
     -37.500       -5.000        0.333        0.555
     -37.500       -4.500        0.345        0.570
     -37.500       -4.000        0.358        0.586
     -37.500       -3.500        0.372        0.602
     -37.500       -3.000        0.400        0.633
     -37.500       -2.500        0.414        0.650
     -37.500       -2.000        0.428        0.667
     -37.500       -1.500        0.442        0.683
     -37.500       -1.000        0.454        0.699
     -37.500       -0.500        0.466        0.713
     -37.500        0.000        0.476        0.726
     -37.500        0.500        0.485        0.738
     -37.500        1.000        0.493        0.748
     -37.500        1.500        0.499        0.757
     -37.500        2.000        0.503        0.764
     -37.500        2.500        0.506        0.770
     -37.500        3.000        0.508        0.775
     -37.500        3.500        0.508        0.778
     -37.500        4.000        0.507        0.780
     -37.500        4.500        0.505        0.781
     -37.500        5.000        0.503        0.782
     -37.500        5.500        0.501        0.783
     -37.500        6.000        0.500        0.784
     -37.500        6.500        0.498        0.785
     -37.500        7.000        0.497        0.787
     -37.500        7.500        0.497        0.789
     -37.500        8.000        0.497        0.792
     -37.500        8.500        0.498        0.796
     -37.500        9.000        0.499        0.800
     -37.500        9.500        0.500        0.804
     -37.500       10.000        0.502        0.809
     -37.500       10.500        0.506        0.816
     -37.500       11.000        0.507        0.820
     -37.500       11.500        0.508        0.823
     -37.500       12.000        0.507        0.825
     -37.500       12.500        0.505        0.826
     -37.500       13.000        0.501        0.825
     -37.500       13.500        0.496        0.822
     -37.500       14.000        0.488        0.818
     -37.500       14.500        0.479        0.811
     -37.500       15.000        0.467        0.802
     -37.500       15.500        0.453        0.791
     -37.500       16.000        0.437        0.778
     -37.500       16.500        0.420        0.764
     -37.500       17.000        0.402        0.748
     -37.500       17.500        0.362        0.711
     -37.500       18.000        0.341        0.693
     -37.500       18.500        0.320        0.675
     -37.500       19.000        0.299        0.657
     -37.500       19.500        0.279        0.639
     -37.500       20.000        0.258        0.622
     -37.500       20.500        0.239        0.605
     -37.500       21.000        0.221        0.590
     -37.500       21.500        0.203        0.575
     -37.500       22.000        0.187        0.562
     -37.500       22.500        0.172        0.550
     -37.500       23.000        0.159        0.539
     -37.500       23.500        0.147        0.530
     -37.500       24.000        0.128        0.514
     -37.500       24.500        0.121        0.510
     -37.500       25.000        0.115        0.507
     -37.500       25.500        0.110        0.505
     -37.500       26.000        0.106        0.504
     -37.500       26.500        0.103        0.503
     -37.500       27.000        0.100        0.503
     -37.500       27.500        0.097        0.504
     -37.500       28.000        0.095        0.504
     -37.500       28.500        0.093        0.505
     -37.500       29.000        0.091        0.506
     -37.500       29.500        0.089        0.507
     -37.500       30.000        0.087        0.507
     -37.500       30.500        0.084        0.508
     -37.500       31.000        0.080        0.506
     -37.500       31.500        0.077        0.506
     -37.500       32.000        0.075        0.507
     -37.500       32.500        0.073        0.507
     -37.500       33.000        0.070        0.508
     -37.500       33.500        0.068        0.508
     -37.500       34.000        0.065        0.509
     -37.500       34.500        0.063        0.509
     -37.500       35.000        0.061        0.510
     -37.500       35.500        0.059        0.510
     -37.500       36.000        0.056        0.511
     -37.500       36.500        0.054        0.511
     -37.500       37.000        0.052        0.512
     -37.500       37.500        0.049        0.512
     -37.500       38.000        0.045        0.511
     -37.500       38.500        0.043        0.511
     -37.500       39.000        0.040        0.512
     -37.500       39.500        0.038        0.512
     -37.500       40.000        0.036        0.513
     -37.500       40.500        0.033        0.513
     -37.500       41.000        0.030        0.513
     -37.500       41.500        0.028        0.513
     -37.500       42.000        0.025        0.513
     -37.500       42.500        0.022        0.513
     -37.500       43.000        0.019        0.513
     -37.500       43.500        0.016        0.513
     -37.500       44.000        0.013        0.513
     -37.000      -44.000        0.000        0.000
     -37.000      -43.500       -0.003        0.000
     -37.000      -43.000       -0.006        0.000
     -37.000      -42.500       -0.010        0.000
     -37.000      -42.000       -0.013        0.000
     -37.000      -41.500       -0.017        0.000
     -37.000      -41.000       -0.021        0.000
     -37.000      -40.500       -0.025        0.000
     -37.000      -40.000       -0.029        0.000
     -37.000      -39.500       -0.032        0.000
     -37.000      -39.000       -0.036        0.000
     -37.000      -38.500       -0.040        0.000
     -37.000      -38.000       -0.044        0.000
     -37.000      -37.500       -0.051        0.000
     -37.000      -37.000       -0.054        0.000
     -37.000      -36.500       -0.057        0.000
     -37.000      -36.000       -0.060        0.000
     -37.000      -35.500       -0.063        0.000
     -37.000      -35.000       -0.066        0.000
     -37.000      -34.500       -0.069        0.000
     -37.000      -34.000       -0.072        0.000
     -37.000      -33.500       -0.074        0.000
     -37.000      -33.000       -0.077        0.000
     -37.000      -32.500       -0.079        0.000
     -37.000      -32.000       -0.081        0.000
     -37.000      -31.500       -0.083        0.000
     -37.000      -31.000       -0.085        0.000
     -37.000      -30.500       -0.089        0.000
     -37.000      -30.000       -0.091        0.000
     -37.000      -29.500       -0.093        0.000
     -37.000      -29.000       -0.094        0.000
     -37.000      -28.500       -0.096        0.000
     -37.000      -28.000       -0.098        0.000
     -37.000      -27.500       -0.099        0.000
     -37.000      -27.000       -0.101        0.000
     -37.000      -26.500       -0.102        0.000
     -37.000      -26.000       -0.103        0.000
     -37.000      -25.500       -0.104        0.001
     -37.000      -25.000       -0.105        0.003
     -37.000      -24.500       -0.106        0.005
     -37.000      -24.000       -0.106        0.007
     -37.000      -23.500       -0.106        0.011
     -37.000      -23.000       -0.105        0.014
     -37.000      -22.500       -0.104        0.018
     -37.000      -22.000       -0.103        0.022
     -37.000      -21.500       -0.101        0.027
     -37.000      -21.000       -0.098        0.033
     -37.000      -20.500       -0.094        0.039
     -37.000      -20.000       -0.090        0.046
     -37.000      -19.500       -0.085        0.054
     -37.000      -19.000       -0.079        0.063
     -37.000      -18.500       -0.071        0.073
     -37.000      -18.000       -0.063        0.085
     -37.000      -17.500       -0.053        0.098
     -37.000      -17.000       -0.029        0.125
     -37.000      -16.500       -0.014        0.142
     -37.000      -16.000        0.001        0.160
     -37.000      -15.500        0.018        0.180
     -37.000      -15.000        0.035        0.200
     -37.000      -14.500        0.054        0.222
     -37.000      -14.000        0.073        0.244
     -37.000      -13.500        0.093        0.266
     -37.000      -13.000        0.112        0.289
     -37.000      -12.500        0.132        0.311
     -37.000      -12.000        0.151        0.333
     -37.000      -11.500        0.169        0.354
     -37.000      -11.000        0.186        0.374
     -37.000      -10.500        0.202        0.392
     -37.000      -10.000        0.230        0.424
     -37.000       -9.500        0.243        0.439
     -37.000       -9.000        0.254        0.453
     -37.000       -8.500        0.265        0.466
     -37.000       -8.000        0.274        0.479
     -37.000       -7.500        0.284        0.491
     -37.000       -7.000        0.293        0.504
     -37.000       -6.500        0.303        0.516
     -37.000       -6.000        0.314        0.529
     -37.000       -5.500        0.324        0.543
     -37.000       -5.000        0.336        0.557
     -37.000       -4.500        0.348        0.573
     -37.000       -4.000        0.361        0.588
     -37.000       -3.500        0.374        0.605
     -37.000       -3.000        0.403        0.635
     -37.000       -2.500        0.416        0.652
     -37.000       -2.000        0.430        0.669
     -37.000       -1.500        0.444        0.685
     -37.000       -1.000        0.456        0.700
     -37.000       -0.500        0.467        0.715
     -37.000        0.000        0.478        0.728
     -37.000        0.500        0.487        0.739
     -37.000        1.000        0.494        0.750
     -37.000        1.500        0.500        0.759
     -37.000        2.000        0.505        0.766
     -37.000        2.500        0.508        0.772
     -37.000        3.000        0.509        0.776
     -37.000        3.500        0.510        0.779
     -37.000        4.000        0.508        0.781
     -37.000        4.500        0.507        0.782
     -37.000        5.000        0.505        0.783
     -37.000        5.500        0.503        0.784
     -37.000        6.000        0.501        0.785
     -37.000        6.500        0.499        0.786
     -37.000        7.000        0.498        0.788
     -37.000        7.500        0.497        0.790
     -37.000        8.000        0.497        0.793
     -37.000        8.500        0.498        0.796
     -37.000        9.000        0.499        0.800
     -37.000        9.500        0.500        0.804
     -37.000       10.000        0.501        0.808
     -37.000       10.500        0.504        0.813
     -37.000       11.000        0.504        0.817
     -37.000       11.500        0.504        0.819
     -37.000       12.000        0.502        0.820
     -37.000       12.500        0.499        0.820
     -37.000       13.000        0.494        0.818
     -37.000       13.500        0.487        0.814
     -37.000       14.000        0.478        0.807
     -37.000       14.500        0.467        0.799
     -37.000       15.000        0.454        0.789
     -37.000       15.500        0.439        0.777
     -37.000       16.000        0.422        0.763
     -37.000       16.500        0.404        0.748
     -37.000       17.000        0.385        0.732
     -37.000       17.500        0.345        0.694
     -37.000       18.000        0.324        0.676
     -37.000       18.500        0.304        0.659
     -37.000       19.000        0.283        0.641
     -37.000       19.500        0.264        0.624
     -37.000       20.000        0.244        0.608
     -37.000       20.500        0.226        0.593
     -37.000       21.000        0.209        0.578
     -37.000       21.500        0.193        0.565
     -37.000       22.000        0.178        0.553
     -37.000       22.500        0.164        0.542
     -37.000       23.000        0.152        0.533
     -37.000       23.500        0.141        0.525
     -37.000       24.000        0.124        0.511
     -37.000       24.500        0.118        0.507
     -37.000       25.000        0.112        0.504
     -37.000       25.500        0.108        0.503
     -37.000       26.000        0.104        0.502
     -37.000       26.500        0.102        0.502
     -37.000       27.000        0.099        0.502
     -37.000       27.500        0.097        0.503
     -37.000       28.000        0.095        0.504
     -37.000       28.500        0.093        0.505
     -37.000       29.000        0.091        0.505
     -37.000       29.500        0.089        0.506
     -37.000       30.000        0.086        0.507
     -37.000       30.500        0.084        0.507
     -37.000       31.000        0.079        0.505
     -37.000       31.500        0.077        0.506
     -37.000       32.000        0.074        0.506
     -37.000       32.500        0.072        0.507
     -37.000       33.000        0.070        0.507
     -37.000       33.500        0.067        0.507
     -37.000       34.000        0.065        0.508
     -37.000       34.500        0.062        0.508
     -37.000       35.000        0.060        0.509
     -37.000       35.500        0.058        0.509
     -37.000       36.000        0.056        0.510
     -37.000       36.500        0.053        0.511
     -37.000       37.000        0.051        0.511
     -37.000       37.500        0.049        0.512
     -37.000       38.000        0.045        0.511
     -37.000       38.500        0.042        0.511
     -37.000       39.000        0.040        0.512
     -37.000       39.500        0.038        0.512
     -37.000       40.000        0.035        0.513
     -37.000       40.500        0.033        0.513
     -37.000       41.000        0.030        0.513
     -37.000       41.500        0.027        0.513
     -37.000       42.000        0.025        0.513
     -37.000       42.500        0.022        0.513
     -37.000       43.000        0.019        0.513
     -37.000       43.500        0.016        0.513
     -37.000       44.000        0.013        0.513
     -36.500      -44.000        0.000        0.000
     -36.500      -43.500       -0.003        0.000
     -36.500      -43.000       -0.006        0.000
     -36.500      -42.500       -0.010        0.000
     -36.500      -42.000       -0.013        0.000
     -36.500      -41.500       -0.017        0.000
     -36.500      -41.000       -0.020        0.000
     -36.500      -40.500       -0.024        0.000
     -36.500      -40.000       -0.028        0.000
     -36.500      -39.500       -0.032        0.000
     -36.500      -39.000       -0.036        0.000
     -36.500      -38.500       -0.039        0.000
     -36.500      -38.000       -0.043        0.000
     -36.500      -37.500       -0.050        0.000
     -36.500      -37.000       -0.053        0.000
     -36.500      -36.500       -0.057        0.000
     -36.500      -36.000       -0.060        0.000
     -36.500      -35.500       -0.063        0.000
     -36.500      -35.000       -0.066        0.000
     -36.500      -34.500       -0.069        0.000
     -36.500      -34.000       -0.072        0.000
     -36.500      -33.500       -0.074        0.000
     -36.500      -33.000       -0.077        0.000
     -36.500      -32.500       -0.079        0.000
     -36.500      -32.000       -0.082        0.000
     -36.500      -31.500       -0.084        0.000
     -36.500      -31.000       -0.086        0.000
     -36.500      -30.500       -0.090        0.000
     -36.500      -30.000       -0.092        0.000
     -36.500      -29.500       -0.093        0.000
     -36.500      -29.000       -0.095        0.000
     -36.500      -28.500       -0.097        0.000
     -36.500      -28.000       -0.098        0.000
     -36.500      -27.500       -0.100        0.000
     -36.500      -27.000       -0.101        0.000
     -36.500      -26.500       -0.103        0.000
     -36.500      -26.000       -0.104        0.000
     -36.500      -25.500       -0.105        0.000
     -36.500      -25.000       -0.106        0.002
     -36.500      -24.500       -0.106        0.004
     -36.500      -24.000       -0.107        0.007
     -36.500      -23.500       -0.106        0.010
     -36.500      -23.000       -0.106        0.014
     -36.500      -22.500       -0.105        0.018
     -36.500      -22.000       -0.103        0.022
     -36.500      -21.500       -0.101        0.027
     -36.500      -21.000       -0.098        0.033
     -36.500      -20.500       -0.094        0.039
     -36.500      -20.000       -0.090        0.047
     -36.500      -19.500       -0.084        0.055
     -36.500      -19.000       -0.078        0.064
     -36.500      -18.500       -0.070        0.075
     -36.500      -18.000       -0.061        0.086
     -36.500      -17.500       -0.051        0.099
     -36.500      -17.000       -0.026        0.127
     -36.500      -16.500       -0.012        0.144
     -36.500      -16.000        0.004        0.163
     -36.500      -15.500        0.021        0.183
     -36.500      -15.000        0.039        0.204
     -36.500      -14.500        0.058        0.225
     -36.500      -14.000        0.077        0.247
     -36.500      -13.500        0.097        0.270
     -36.500      -13.000        0.116        0.292
     -36.500      -12.500        0.136        0.315
     -36.500      -12.000        0.154        0.336
     -36.500      -11.500        0.173        0.357
     -36.500      -11.000        0.190        0.377
     -36.500      -10.500        0.205        0.396
     -36.500      -10.000        0.234        0.427
     -36.500       -9.500        0.246        0.442
     -36.500       -9.000        0.257        0.456
     -36.500       -8.500        0.267        0.469
     -36.500       -8.000        0.277        0.482
     -36.500       -7.500        0.287        0.494
     -36.500       -7.000        0.296        0.507
     -36.500       -6.500        0.306        0.519
     -36.500       -6.000        0.316        0.532
     -36.500       -5.500        0.327        0.546
     -36.500       -5.000        0.339        0.560
     -36.500       -4.500        0.351        0.575
     -36.500       -4.000        0.364        0.591
     -36.500       -3.500        0.377        0.607
     -36.500       -3.000        0.405        0.638
     -36.500       -2.500        0.419        0.654
     -36.500       -2.000        0.432        0.671
     -36.500       -1.500        0.445        0.687
     -36.500       -1.000        0.458        0.702
     -36.500       -0.500        0.469        0.716
     -36.500        0.000        0.479        0.729
     -36.500        0.500        0.488        0.741
     -36.500        1.000        0.496        0.751
     -36.500        1.500        0.502        0.760
     -36.500        2.000        0.506        0.768
     -36.500        2.500        0.509        0.774
     -36.500        3.000        0.511        0.778
     -36.500        3.500        0.512        0.781
     -36.500        4.000        0.510        0.783
     -36.500        4.500        0.509        0.784
     -36.500        5.000        0.507        0.785
     -36.500        5.500        0.505        0.786
     -36.500        6.000        0.503        0.787
     -36.500        6.500        0.501        0.788
     -36.500        7.000        0.500        0.790
     -36.500        7.500        0.499        0.792
     -36.500        8.000        0.499        0.794
     -36.500        8.500        0.499        0.798
     -36.500        9.000        0.500        0.801
     -36.500        9.500        0.501        0.805
     -36.500       10.000        0.502        0.809
     -36.500       10.500        0.503        0.813
     -36.500       11.000        0.503        0.815
     -36.500       11.500        0.502        0.817
     -36.500       12.000        0.499        0.817
     -36.500       12.500        0.495        0.816
     -36.500       13.000        0.488        0.812
     -36.500       13.500        0.480        0.807
     -36.500       14.000        0.470        0.799
     -36.500       14.500        0.457        0.789
     -36.500       15.000        0.443        0.778
     -36.500       15.500        0.426        0.764
     -36.500       16.000        0.408        0.749
     -36.500       16.500        0.390        0.733
     -36.500       17.000        0.370        0.716
     -36.500       17.500        0.329        0.678
     -36.500       18.000        0.308        0.660
     -36.500       18.500        0.288        0.643
     -36.500       19.000        0.268        0.626
     -36.500       19.500        0.249        0.610
     -36.500       20.000        0.231        0.595
     -36.500       20.500        0.214        0.580
     -36.500       21.000        0.198        0.567
     -36.500       21.500        0.183        0.555
     -36.500       22.000        0.169        0.544
     -36.500       22.500        0.157        0.534
     -36.500       23.000        0.146        0.526
     -36.500       23.500        0.136        0.519
     -36.500       24.000        0.121        0.507
     -36.500       24.500        0.115        0.504
     -36.500       25.000        0.110        0.502
     -36.500       25.500        0.106        0.501
     -36.500       26.000        0.103        0.501
     -36.500       26.500        0.100        0.501
     -36.500       27.000        0.098        0.502
     -36.500       27.500        0.096        0.502
     -36.500       28.000        0.094        0.503
     -36.500       28.500        0.092        0.504
     -36.500       29.000        0.090        0.505
     -36.500       29.500        0.088        0.506
     -36.500       30.000        0.086        0.506
     -36.500       30.500        0.084        0.507
     -36.500       31.000        0.079        0.505
     -36.500       31.500        0.076        0.505
     -36.500       32.000        0.074        0.505
     -36.500       32.500        0.071        0.506
     -36.500       33.000        0.069        0.506
     -36.500       33.500        0.066        0.507
     -36.500       34.000        0.064        0.507
     -36.500       34.500        0.062        0.508
     -36.500       35.000        0.059        0.508
     -36.500       35.500        0.057        0.509
     -36.500       36.000        0.055        0.509
     -36.500       36.500        0.053        0.510
     -36.500       37.000        0.051        0.511
     -36.500       37.500        0.048        0.511
     -36.500       38.000        0.044        0.510
     -36.500       38.500        0.042        0.511
     -36.500       39.000        0.040        0.511
     -36.500       39.500        0.038        0.512
     -36.500       40.000        0.035        0.512
     -36.500       40.500        0.033        0.513
     -36.500       41.000        0.030        0.513
     -36.500       41.500        0.027        0.513
     -36.500       42.000        0.025        0.513
     -36.500       42.500        0.022        0.513
     -36.500       43.000        0.019        0.513
     -36.500       43.500        0.016        0.513
     -36.500       44.000        0.013        0.513
     -36.000      -44.000        0.000        0.000
     -36.000      -43.500       -0.003        0.000
     -36.000      -43.000       -0.006        0.000
     -36.000      -42.500       -0.010        0.000
     -36.000      -42.000       -0.013        0.000
     -36.000      -41.500       -0.017        0.000
     -36.000      -41.000       -0.020        0.000
     -36.000      -40.500       -0.024        0.000
     -36.000      -40.000       -0.028        0.000
     -36.000      -39.500       -0.031        0.000
     -36.000      -39.000       -0.035        0.000
     -36.000      -38.500       -0.039        0.000
     -36.000      -38.000       -0.042        0.000
     -36.000      -37.500       -0.050        0.000
     -36.000      -37.000       -0.053        0.000
     -36.000      -36.500       -0.056        0.000
     -36.000      -36.000       -0.060        0.000
     -36.000      -35.500       -0.063        0.000
     -36.000      -35.000       -0.066        0.000
     -36.000      -34.500       -0.069        0.000
     -36.000      -34.000       -0.072        0.000
     -36.000      -33.500       -0.075        0.000
     -36.000      -33.000       -0.077        0.000
     -36.000      -32.500       -0.080        0.000
     -36.000      -32.000       -0.082        0.000
     -36.000      -31.500       -0.084        0.000
     -36.000      -31.000       -0.087        0.000
     -36.000      -30.500       -0.090        0.000
     -36.000      -30.000       -0.092        0.000
     -36.000      -29.500       -0.094        0.000
     -36.000      -29.000       -0.096        0.000
     -36.000      -28.500       -0.097        0.000
     -36.000      -28.000       -0.099        0.000
     -36.000      -27.500       -0.101        0.000
     -36.000      -27.000       -0.102        0.000
     -36.000      -26.500       -0.103        0.000
     -36.000      -26.000       -0.105        0.000
     -36.000      -25.500       -0.106        0.000
     -36.000      -25.000       -0.106        0.002
     -36.000      -24.500       -0.107        0.004
     -36.000      -24.000       -0.107        0.006
     -36.000      -23.500       -0.107        0.010
     -36.000      -23.000       -0.106        0.013
     -36.000      -22.500       -0.105        0.018
     -36.000      -22.000       -0.103        0.022
     -36.000      -21.500       -0.101        0.027
     -36.000      -21.000       -0.098        0.033
     -36.000      -20.500       -0.094        0.040
     -36.000      -20.000       -0.089        0.047
     -36.000      -19.500       -0.083        0.056
     -36.000      -19.000       -0.077        0.065
     -36.000      -18.500       -0.069        0.076
     -36.000      -18.000       -0.059        0.088
     -36.000      -17.500       -0.049        0.102
     -36.000      -17.000       -0.023        0.130
     -36.000      -16.500       -0.008        0.148
     -36.000      -16.000        0.008        0.167
     -36.000      -15.500        0.025        0.187
     -36.000      -15.000        0.044        0.208
     -36.000      -14.500        0.063        0.230
     -36.000      -14.000        0.082        0.252
     -36.000      -13.500        0.102        0.275
     -36.000      -13.000        0.121        0.297
     -36.000      -12.500        0.141        0.319
     -36.000      -12.000        0.159        0.341
     -36.000      -11.500        0.177        0.362
     -36.000      -11.000        0.194        0.381
     -36.000      -10.500        0.210        0.400
     -36.000      -10.000        0.237        0.430
     -36.000       -9.500        0.249        0.445
     -36.000       -9.000        0.260        0.459
     -36.000       -8.500        0.271        0.472
     -36.000       -8.000        0.280        0.485
     -36.000       -7.500        0.290        0.497
     -36.000       -7.000        0.299        0.509
     -36.000       -6.500        0.309        0.522
     -36.000       -6.000        0.319        0.535
     -36.000       -5.500        0.329        0.548
     -36.000       -5.000        0.341        0.562
     -36.000       -4.500        0.353        0.577
     -36.000       -4.000        0.366        0.593
     -36.000       -3.500        0.379        0.609
     -36.000       -3.000        0.407        0.640
     -36.000       -2.500        0.421        0.656
     -36.000       -2.000        0.434        0.673
     -36.000       -1.500        0.447        0.689
     -36.000       -1.000        0.460        0.704
     -36.000       -0.500        0.471        0.718
     -36.000        0.000        0.481        0.731
     -36.000        0.500        0.490        0.743
     -36.000        1.000        0.498        0.753
     -36.000        1.500        0.504        0.762
     -36.000        2.000        0.508        0.770
     -36.000        2.500        0.512        0.776
     -36.000        3.000        0.513        0.780
     -36.000        3.500        0.514        0.784
     -36.000        4.000        0.513        0.786
     -36.000        4.500        0.511        0.787
     -36.000        5.000        0.510        0.788
     -36.000        5.500        0.508        0.789
     -36.000        6.000        0.506        0.790
     -36.000        6.500        0.504        0.791
     -36.000        7.000        0.503        0.793
     -36.000        7.500        0.502        0.795
     -36.000        8.000        0.502        0.798
     -36.000        8.500        0.502        0.801
     -36.000        9.000        0.503        0.804
     -36.000        9.500        0.504        0.808
     -36.000       10.000        0.505        0.811
     -36.000       10.500        0.505        0.815
     -36.000       11.000        0.504        0.817
     -36.000       11.500        0.502        0.817
     -36.000       12.000        0.498        0.816
     -36.000       12.500        0.493        0.814
     -36.000       13.000        0.485        0.809
     -36.000       13.500        0.476        0.802
     -36.000       14.000        0.464        0.793
     -36.000       14.500        0.450        0.782
     -36.000       15.000        0.433        0.769
     -36.000       15.500        0.416        0.754
     -36.000       16.000        0.397        0.737
     -36.000       16.500        0.376        0.720
     -36.000       17.000        0.356        0.702
     -36.000       17.500        0.314        0.663
     -36.000       18.000        0.293        0.645
     -36.000       18.500        0.273        0.628
     -36.000       19.000        0.254        0.612
     -36.000       19.500        0.235        0.596
     -36.000       20.000        0.218        0.582
     -36.000       20.500        0.202        0.568
     -36.000       21.000        0.187        0.556
     -36.000       21.500        0.173        0.545
     -36.000       22.000        0.161        0.536
     -36.000       22.500        0.149        0.527
     -36.000       23.000        0.139        0.520
     -36.000       23.500        0.131        0.514
     -36.000       24.000        0.117        0.503
     -36.000       24.500        0.112        0.501
     -36.000       25.000        0.108        0.500
     -36.000       25.500        0.104        0.499
     -36.000       26.000        0.102        0.499
     -36.000       26.500        0.099        0.500
     -36.000       27.000        0.097        0.500
     -36.000       27.500        0.095        0.501
     -36.000       28.000        0.093        0.502
     -36.000       28.500        0.091        0.503
     -36.000       29.000        0.089        0.504
     -36.000       29.500        0.087        0.505
     -36.000       30.000        0.085        0.505
     -36.000       30.500        0.083        0.506
     -36.000       31.000        0.078        0.504
     -36.000       31.500        0.075        0.504
     -36.000       32.000        0.073        0.505
     -36.000       32.500        0.070        0.505
     -36.000       33.000        0.068        0.505
     -36.000       33.500        0.065        0.506
     -36.000       34.000        0.063        0.506
     -36.000       34.500        0.061        0.507
     -36.000       35.000        0.058        0.507
     -36.000       35.500        0.056        0.508
     -36.000       36.000        0.054        0.509
     -36.000       36.500        0.052        0.509
     -36.000       37.000        0.050        0.510
     -36.000       37.500        0.048        0.511
     -36.000       38.000        0.044        0.510
     -36.000       38.500        0.042        0.511
     -36.000       39.000        0.040        0.511
     -36.000       39.500        0.037        0.512
     -36.000       40.000        0.035        0.512
     -36.000       40.500        0.033        0.513
     -36.000       41.000        0.030        0.513
     -36.000       41.500        0.027        0.513
     -36.000       42.000        0.024        0.513
     -36.000       42.500        0.021        0.513
     -36.000       43.000        0.018        0.513
     -36.000       43.500        0.015        0.513
     -36.000       44.000        0.012        0.512
     -35.500      -44.000       -0.000        0.000
     -35.500      -43.500       -0.003        0.000
     -35.500      -43.000       -0.006        0.000
     -35.500      -42.500       -0.010        0.000
     -35.500      -42.000       -0.013        0.000
     -35.500      -41.500       -0.016        0.000
     -35.500      -41.000       -0.020        0.000
     -35.500      -40.500       -0.023        0.000
     -35.500      -40.000       -0.027        0.000
     -35.500      -39.500       -0.031        0.000
     -35.500      -39.000       -0.035        0.000
     -35.500      -38.500       -0.038        0.000
     -35.500      -38.000       -0.042        0.000
     -35.500      -37.500       -0.049        0.000
     -35.500      -37.000       -0.053        0.000
     -35.500      -36.500       -0.056        0.000
     -35.500      -36.000       -0.059        0.000
     -35.500      -35.500       -0.063        0.000
     -35.500      -35.000       -0.066        0.000
     -35.500      -34.500       -0.069        0.000
     -35.500      -34.000       -0.072        0.000
     -35.500      -33.500       -0.075        0.000
     -35.500      -33.000       -0.078        0.000
     -35.500      -32.500       -0.080        0.000
     -35.500      -32.000       -0.083        0.000
     -35.500      -31.500       -0.085        0.000
     -35.500      -31.000       -0.087        0.000
     -35.500      -30.500       -0.091        0.000
     -35.500      -30.000       -0.093        0.000
     -35.500      -29.500       -0.095        0.000
     -35.500      -29.000       -0.096        0.000
     -35.500      -28.500       -0.098        0.000
     -35.500      -28.000       -0.100        0.000
     -35.500      -27.500       -0.101        0.000
     -35.500      -27.000       -0.103        0.000
     -35.500      -26.500       -0.104        0.000
     -35.500      -26.000       -0.105        0.000
     -35.500      -25.500       -0.106        0.000
     -35.500      -25.000       -0.107        0.001
     -35.500      -24.500       -0.107        0.004
     -35.500      -24.000       -0.107        0.006
     -35.500      -23.500       -0.107        0.010
     -35.500      -23.000       -0.106        0.013
     -35.500      -22.500       -0.105        0.018
     -35.500      -22.000       -0.103        0.022
     -35.500      -21.500       -0.100        0.028
     -35.500      -21.000       -0.097        0.034
     -35.500      -20.500       -0.093        0.041
     -35.500      -20.000       -0.088        0.048
     -35.500      -19.500       -0.082        0.057
     -35.500      -19.000       -0.075        0.067
     -35.500      -18.500       -0.067        0.078
     -35.500      -18.000       -0.057        0.091
     -35.500      -17.500       -0.046        0.105
     -35.500      -17.000       -0.019        0.134
     -35.500      -16.500       -0.004        0.152
     -35.500      -16.000        0.013        0.172
     -35.500      -15.500        0.030        0.192
     -35.500      -15.000        0.049        0.214
     -35.500      -14.500        0.068        0.236
     -35.500      -14.000        0.088        0.258
     -35.500      -13.500        0.108        0.281
     -35.500      -13.000        0.127        0.303
     -35.500      -12.500        0.146        0.325
     -35.500      -12.000        0.165        0.347
     -35.500      -11.500        0.182        0.367
     -35.500      -11.000        0.199        0.386
     -35.500      -10.500        0.214        0.405
     -35.500      -10.000        0.241        0.434
     -35.500       -9.500        0.253        0.449
     -35.500       -9.000        0.264        0.463
     -35.500       -8.500        0.274        0.475
     -35.500       -8.000        0.283        0.488
     -35.500       -7.500        0.292        0.500
     -35.500       -7.000        0.302        0.512
     -35.500       -6.500        0.311        0.524
     -35.500       -6.000        0.321        0.537
     -35.500       -5.500        0.332        0.550
     -35.500       -5.000        0.343        0.564
     -35.500       -4.500        0.355        0.579
     -35.500       -4.000        0.368        0.595
     -35.500       -3.500        0.381        0.611
     -35.500       -3.000        0.408        0.641
     -35.500       -2.500        0.422        0.658
     -35.500       -2.000        0.436        0.675
     -35.500       -1.500        0.449        0.691
     -35.500       -1.000        0.462        0.706
     -35.500       -0.500        0.473        0.720
     -35.500        0.000        0.483        0.733
     -35.500        0.500        0.492        0.745
     -35.500        1.000        0.500        0.756
     -35.500        1.500        0.506        0.765
     -35.500        2.000        0.511        0.772
     -35.500        2.500        0.514        0.778
     -35.500        3.000        0.516        0.783
     -35.500        3.500        0.517        0.787
     -35.500        4.000        0.516        0.789
     -35.500        4.500        0.514        0.790
     -35.500        5.000        0.513        0.791
     -35.500        5.500        0.511        0.792
     -35.500        6.000        0.510        0.794
     -35.500        6.500        0.508        0.795
     -35.500        7.000        0.507        0.797
     -35.500        7.500        0.507        0.799
     -35.500        8.000        0.507        0.802
     -35.500        8.500        0.507        0.805
     -35.500        9.000        0.508        0.809
     -35.500        9.500        0.509        0.812
     -35.500       10.000        0.509        0.816
     -35.500       10.500        0.509        0.819
     -35.500       11.000        0.508        0.820
     -35.500       11.500        0.505        0.820
     -35.500       12.000        0.500        0.819
     -35.500       12.500        0.494        0.815
     -35.500       13.000        0.485        0.809
     -35.500       13.500        0.474        0.800
     -35.500       14.000        0.460        0.790
     -35.500       14.500        0.444        0.777
     -35.500       15.000        0.427        0.762
     -35.500       15.500        0.407        0.745
     -35.500       16.000        0.387        0.728
     -35.500       16.500        0.365        0.709
     -35.500       17.000        0.344        0.690
     -35.500       17.500        0.300        0.650
     -35.500       18.000        0.280        0.632
     -35.500       18.500        0.260        0.615
     -35.500       19.000        0.241        0.599
     -35.500       19.500        0.223        0.584
     -35.500       20.000        0.207        0.570
     -35.500       20.500        0.191        0.558
     -35.500       21.000        0.177        0.547
     -35.500       21.500        0.165        0.537
     -35.500       22.000        0.153        0.528
     -35.500       22.500        0.143        0.521
     -35.500       23.000        0.134        0.515
     -35.500       23.500        0.126        0.510
     -35.500       24.000        0.114        0.500
     -35.500       24.500        0.109        0.499
     -35.500       25.000        0.106        0.498
     -35.500       25.500        0.103        0.497
     -35.500       26.000        0.100        0.498
     -35.500       26.500        0.098        0.498
     -35.500       27.000        0.096        0.499
     -35.500       27.500        0.094        0.500
     -35.500       28.000        0.092        0.501
     -35.500       28.500        0.090        0.502
     -35.500       29.000        0.088        0.503
     -35.500       29.500        0.086        0.504
     -35.500       30.000        0.084        0.504
     -35.500       30.500        0.082        0.505
     -35.500       31.000        0.077        0.503
     -35.500       31.500        0.074        0.503
     -35.500       32.000        0.072        0.503
     -35.500       32.500        0.069        0.504
     -35.500       33.000        0.067        0.504
     -35.500       33.500        0.064        0.504
     -35.500       34.000        0.062        0.505
     -35.500       34.500        0.060        0.506
     -35.500       35.000        0.057        0.506
     -35.500       35.500        0.055        0.507
     -35.500       36.000        0.053        0.508
     -35.500       36.500        0.051        0.509
     -35.500       37.000        0.049        0.510
     -35.500       37.500        0.047        0.510
     -35.500       38.000        0.044        0.510
     -35.500       38.500        0.042        0.510
     -35.500       39.000        0.040        0.511
     -35.500       39.500        0.037        0.512
     -35.500       40.000        0.035        0.512
     -35.500       40.500        0.032        0.513
     -35.500       41.000        0.030        0.513
     -35.500       41.500        0.027        0.513
     -35.500       42.000        0.024        0.513
     -35.500       42.500        0.021        0.513
     -35.500       43.000        0.018        0.513
     -35.500       43.500        0.015        0.512
     -35.500       44.000        0.012        0.512
     -35.000      -44.000       -0.000        0.000
     -35.000      -43.500       -0.003        0.000
     -35.000      -43.000       -0.006        0.000
     -35.000      -42.500       -0.010        0.000
     -35.000      -42.000       -0.013        0.000
     -35.000      -41.500       -0.016        0.000
     -35.000      -41.000       -0.020        0.000
     -35.000      -40.500       -0.023        0.000
     -35.000      -40.000       -0.027        0.000
     -35.000      -39.500       -0.030        0.000
     -35.000      -39.000       -0.034        0.000
     -35.000      -38.500       -0.038        0.000
     -35.000      -38.000       -0.041        0.000
     -35.000      -37.500       -0.049        0.000
     -35.000      -37.000       -0.052        0.000
     -35.000      -36.500       -0.056        0.000
     -35.000      -36.000       -0.059        0.000
     -35.000      -35.500       -0.063        0.000
     -35.000      -35.000       -0.066        0.000
     -35.000      -34.500       -0.069        0.000
     -35.000      -34.000       -0.072        0.000
     -35.000      -33.500       -0.075        0.000
     -35.000      -33.000       -0.078        0.000
     -35.000      -32.500       -0.080        0.000
     -35.000      -32.000       -0.083        0.000
     -35.000      -31.500       -0.085        0.000
     -35.000      -31.000       -0.087        0.000
     -35.000      -30.500       -0.092        0.000
     -35.000      -30.000       -0.093        0.000
     -35.000      -29.500       -0.095        0.000
     -35.000      -29.000       -0.097        0.000
     -35.000      -28.500       -0.099        0.000
     -35.000      -28.000       -0.100        0.000
     -35.000      -27.500       -0.102        0.000
     -35.000      -27.000       -0.103        0.000
     -35.000      -26.500       -0.104        0.000
     -35.000      -26.000       -0.105        0.000
     -35.000      -25.500       -0.106        0.000
     -35.000      -25.000       -0.107        0.001
     -35.000      -24.500       -0.107        0.003
     -35.000      -24.000       -0.108        0.006
     -35.000      -23.500       -0.107        0.010
     -35.000      -23.000       -0.106        0.014
     -35.000      -22.500       -0.104        0.018
     -35.000      -22.000       -0.102        0.023
     -35.000      -21.500       -0.100        0.028
     -35.000      -21.000       -0.096        0.034
     -35.000      -20.500       -0.092        0.042
     -35.000      -20.000       -0.087        0.050
     -35.000      -19.500       -0.080        0.059
     -35.000      -19.000       -0.073        0.069
     -35.000      -18.500       -0.064        0.081
     -35.000      -18.000       -0.054        0.094
     -35.000      -17.500       -0.042        0.108
     -35.000      -17.000       -0.015        0.139
     -35.000      -16.500        0.001        0.157
     -35.000      -16.000        0.018        0.177
     -35.000      -15.500        0.036        0.198
     -35.000      -15.000        0.055        0.220
     -35.000      -14.500        0.075        0.242
     -35.000      -14.000        0.094        0.265
     -35.000      -13.500        0.114        0.287
     -35.000      -13.000        0.134        0.310
     -35.000      -12.500        0.153        0.332
     -35.000      -12.000        0.171        0.353
     -35.000      -11.500        0.189        0.373
     -35.000      -11.000        0.205        0.392
     -35.000      -10.500        0.220        0.410
     -35.000      -10.000        0.246        0.439
     -35.000       -9.500        0.257        0.453
     -35.000       -9.000        0.268        0.466
     -35.000       -8.500        0.277        0.479
     -35.000       -8.000        0.286        0.491
     -35.000       -7.500        0.295        0.502
     -35.000       -7.000        0.304        0.514
     -35.000       -6.500        0.313        0.526
     -35.000       -6.000        0.323        0.539
     -35.000       -5.500        0.333        0.552
     -35.000       -5.000        0.345        0.566
     -35.000       -4.500        0.357        0.581
     -35.000       -4.000        0.369        0.596
     -35.000       -3.500        0.382        0.613
     -35.000       -3.000        0.410        0.643
     -35.000       -2.500        0.424        0.660
     -35.000       -2.000        0.438        0.677
     -35.000       -1.500        0.451        0.693
     -35.000       -1.000        0.464        0.708
     -35.000       -0.500        0.475        0.722
     -35.000        0.000        0.486        0.736
     -35.000        0.500        0.495        0.747
     -35.000        1.000        0.502        0.758
     -35.000        1.500        0.509        0.767
     -35.000        2.000        0.513        0.775
     -35.000        2.500        0.517        0.781
     -35.000        3.000        0.519        0.786
     -35.000        3.500        0.520        0.790
     -35.000        4.000        0.519        0.792
     -35.000        4.500        0.518        0.794
     -35.000        5.000        0.517        0.795
     -35.000        5.500        0.515        0.797
     -35.000        6.000        0.514        0.798
     -35.000        6.500        0.513        0.800
     -35.000        7.000        0.512        0.802
     -35.000        7.500        0.512        0.805
     -35.000        8.000        0.512        0.808
     -35.000        8.500        0.513        0.811
     -35.000        9.000        0.514        0.815
     -35.000        9.500        0.515        0.819
     -35.000       10.000        0.516        0.823
     -35.000       10.500        0.516        0.825
     -35.000       11.000        0.514        0.826
     -35.000       11.500        0.511        0.826
     -35.000       12.000        0.505        0.823
     -35.000       12.500        0.497        0.818
     -35.000       13.000        0.487        0.811
     -35.000       13.500        0.475        0.801
     -35.000       14.000        0.460        0.789
     -35.000       14.500        0.442        0.775
     -35.000       15.000        0.423        0.758
     -35.000       15.500        0.402        0.740
     -35.000       16.000        0.380        0.721
     -35.000       16.500        0.357        0.701
     -35.000       17.000        0.334        0.681
     -35.000       17.500        0.289        0.639
     -35.000       18.000        0.268        0.620
     -35.000       18.500        0.248        0.603
     -35.000       19.000        0.230        0.588
     -35.000       19.500        0.212        0.573
     -35.000       20.000        0.197        0.560
     -35.000       20.500        0.182        0.549
     -35.000       21.000        0.169        0.538
     -35.000       21.500        0.157        0.529
     -35.000       22.000        0.147        0.522
     -35.000       22.500        0.138        0.515
     -35.000       23.000        0.129        0.510
     -35.000       23.500        0.122        0.506
     -35.000       24.000        0.112        0.498
     -35.000       24.500        0.107        0.497
     -35.000       25.000        0.104        0.496
     -35.000       25.500        0.101        0.496
     -35.000       26.000        0.099        0.496
     -35.000       26.500        0.097        0.497
     -35.000       27.000        0.095        0.498
     -35.000       27.500        0.093        0.499
     -35.000       28.000        0.091        0.500
     -35.000       28.500        0.089        0.501
     -35.000       29.000        0.087        0.502
     -35.000       29.500        0.085        0.503
     -35.000       30.000        0.083        0.503
     -35.000       30.500        0.080        0.504
     -35.000       31.000        0.075        0.502
     -35.000       31.500        0.073        0.502
     -35.000       32.000        0.070        0.502
     -35.000       32.500        0.068        0.502
     -35.000       33.000        0.065        0.503
     -35.000       33.500        0.063        0.503
     -35.000       34.000        0.061        0.504
     -35.000       34.500        0.058        0.504
     -35.000       35.000        0.056        0.505
     -35.000       35.500        0.054        0.506
     -35.000       36.000        0.052        0.507
     -35.000       36.500        0.051        0.508
     -35.000       37.000        0.049        0.509
     -35.000       37.500        0.047        0.510
     -35.000       38.000        0.043        0.509
     -35.000       38.500        0.041        0.510
     -35.000       39.000        0.039        0.511
     -35.000       39.500        0.037        0.512
     -35.000       40.000        0.035        0.512
     -35.000       40.500        0.032        0.513
     -35.000       41.000        0.030        0.513
     -35.000       41.500        0.027        0.513
     -35.000       42.000        0.024        0.513
     -35.000       42.500        0.021        0.512
     -35.000       43.000        0.018        0.512
     -35.000       43.500        0.015        0.512
     -35.000       44.000        0.012        0.512
     -34.500      -44.000       -0.001        0.000
     -34.500      -43.500       -0.004        0.000
     -34.500      -43.000       -0.007        0.000
     -34.500      -42.500       -0.010        0.000
     -34.500      -42.000       -0.013        0.000
     -34.500      -41.500       -0.016        0.000
     -34.500      -41.000       -0.019        0.000
     -34.500      -40.500       -0.023        0.000
     -34.500      -40.000       -0.026        0.000
     -34.500      -39.500       -0.030        0.000
     -34.500      -39.000       -0.033        0.000
     -34.500      -38.500       -0.037        0.000
     -34.500      -38.000       -0.041        0.000
     -34.500      -37.500       -0.048        0.000
     -34.500      -37.000       -0.052        0.000
     -34.500      -36.500       -0.055        0.000
     -34.500      -36.000       -0.059        0.000
     -34.500      -35.500       -0.062        0.000
     -34.500      -35.000       -0.066        0.000
     -34.500      -34.500       -0.069        0.000
     -34.500      -34.000       -0.072        0.000
     -34.500      -33.500       -0.075        0.000
     -34.500      -33.000       -0.078        0.000
     -34.500      -32.500       -0.081        0.000
     -34.500      -32.000       -0.083        0.000
     -34.500      -31.500       -0.086        0.000
     -34.500      -31.000       -0.088        0.000
     -34.500      -30.500       -0.092        0.000
     -34.500      -30.000       -0.094        0.000
     -34.500      -29.500       -0.096        0.000
     -34.500      -29.000       -0.098        0.000
     -34.500      -28.500       -0.099        0.000
     -34.500      -28.000       -0.101        0.000
     -34.500      -27.500       -0.102        0.000
     -34.500      -27.000       -0.104        0.000
     -34.500      -26.500       -0.105        0.000
     -34.500      -26.000       -0.106        0.000
     -34.500      -25.500       -0.107        0.000
     -34.500      -25.000       -0.107        0.001
     -34.500      -24.500       -0.108        0.003
     -34.500      -24.000       -0.108        0.006
     -34.500      -23.500       -0.107        0.010
     -34.500      -23.000       -0.106        0.014
     -34.500      -22.500       -0.104        0.018
     -34.500      -22.000       -0.102        0.023
     -34.500      -21.500       -0.099        0.029
     -34.500      -21.000       -0.095        0.035
     -34.500      -20.500       -0.091        0.043
     -34.500      -20.000       -0.085        0.051
     -34.500      -19.500       -0.079        0.061
     -34.500      -19.000       -0.071        0.071
     -34.500      -18.500       -0.061        0.083
     -34.500      -18.000       -0.051        0.097
     -34.500      -17.500       -0.039        0.112
     -34.500      -17.000       -0.010        0.144
     -34.500      -16.500        0.007        0.163
     -34.500      -16.000        0.024        0.183
     -34.500      -15.500        0.043        0.205
     -34.500      -15.000        0.062        0.227
     -34.500      -14.500        0.082        0.249
     -34.500      -14.000        0.102        0.272
     -34.500      -13.500        0.122        0.295
     -34.500      -13.000        0.141        0.317
     -34.500      -12.500        0.160        0.339
     -34.500      -12.000        0.178        0.360
     -34.500      -11.500        0.195        0.380
     -34.500      -11.000        0.211        0.398
     -34.500      -10.500        0.226        0.416
     -34.500      -10.000        0.251        0.444
     -34.500       -9.500        0.262        0.458
     -34.500       -9.000        0.271        0.470
     -34.500       -8.500        0.281        0.482
     -34.500       -8.000        0.289        0.494
     -34.500       -7.500        0.298        0.505
     -34.500       -7.000        0.306        0.517
     -34.500       -6.500        0.315        0.528
     -34.500       -6.000        0.325        0.541
     -34.500       -5.500        0.335        0.554
     -34.500       -5.000        0.346        0.567
     -34.500       -4.500        0.358        0.582
     -34.500       -4.000        0.370        0.598
     -34.500       -3.500        0.384        0.614
     -34.500       -3.000        0.411        0.644
     -34.500       -2.500        0.426        0.661
     -34.500       -2.000        0.440        0.678
     -34.500       -1.500        0.453        0.694
     -34.500       -1.000        0.466        0.710
     -34.500       -0.500        0.477        0.724
     -34.500        0.000        0.488        0.738
     -34.500        0.500        0.497        0.750
     -34.500        1.000        0.505        0.760
     -34.500        1.500        0.511        0.770
     -34.500        2.000        0.516        0.777
     -34.500        2.500        0.520        0.784
     -34.500        3.000        0.522        0.789
     -34.500        3.500        0.523        0.793
     -34.500        4.000        0.523        0.796
     -34.500        4.500        0.522        0.798
     -34.500        5.000        0.521        0.800
     -34.500        5.500        0.520        0.801
     -34.500        6.000        0.519        0.803
     -34.500        6.500        0.518        0.805
     -34.500        7.000        0.518        0.808
     -34.500        7.500        0.518        0.811
     -34.500        8.000        0.519        0.815
     -34.500        8.500        0.520        0.819
     -34.500        9.000        0.522        0.823
     -34.500        9.500        0.523        0.827
     -34.500       10.000        0.524        0.831
     -34.500       10.500        0.524        0.834
     -34.500       11.000        0.522        0.835
     -34.500       11.500        0.518        0.834
     -34.500       12.000        0.512        0.830
     -34.500       12.500        0.503        0.824
     -34.500       13.000        0.492        0.816
     -34.500       13.500        0.478        0.805
     -34.500       14.000        0.462        0.791
     -34.500       14.500        0.443        0.775
     -34.500       15.000        0.422        0.757
     -34.500       15.500        0.399        0.737
     -34.500       16.000        0.375        0.716
     -34.500       16.500        0.351        0.695
     -34.500       17.000        0.327        0.674
     -34.500       17.500        0.281        0.630
     -34.500       18.000        0.259        0.611
     -34.500       18.500        0.239        0.594
     -34.500       19.000        0.221        0.578
     -34.500       19.500        0.204        0.564
     -34.500       20.000        0.188        0.552
     -34.500       20.500        0.174        0.541
     -34.500       21.000        0.162        0.531
     -34.500       21.500        0.151        0.523
     -34.500       22.000        0.142        0.516
     -34.500       22.500        0.133        0.511
     -34.500       23.000        0.126        0.506
     -34.500       23.500        0.119        0.503
     -34.500       24.000        0.109        0.496
     -34.500       24.500        0.106        0.495
     -34.500       25.000        0.102        0.494
     -34.500       25.500        0.100        0.495
     -34.500       26.000        0.097        0.495
     -34.500       26.500        0.095        0.496
     -34.500       27.000        0.093        0.497
     -34.500       27.500        0.092        0.498
     -34.500       28.000        0.090        0.499
     -34.500       28.500        0.088        0.500
     -34.500       29.000        0.086        0.500
     -34.500       29.500        0.084        0.501
     -34.500       30.000        0.081        0.502
     -34.500       30.500        0.079        0.502
     -34.500       31.000        0.074        0.500
     -34.500       31.500        0.071        0.500
     -34.500       32.000        0.069        0.501
     -34.500       32.500        0.066        0.501
     -34.500       33.000        0.064        0.501
     -34.500       33.500        0.062        0.502
     -34.500       34.000        0.059        0.503
     -34.500       34.500        0.057        0.503
     -34.500       35.000        0.055        0.504
     -34.500       35.500        0.053        0.505
     -34.500       36.000        0.052        0.506
     -34.500       36.500        0.050        0.507
     -34.500       37.000        0.048        0.508
     -34.500       37.500        0.047        0.510
     -34.500       38.000        0.043        0.509
     -34.500       38.500        0.041        0.510
     -34.500       39.000        0.039        0.511
     -34.500       39.500        0.037        0.512
     -34.500       40.000        0.035        0.512
     -34.500       40.500        0.032        0.513
     -34.500       41.000        0.030        0.513
     -34.500       41.500        0.027        0.513
     -34.500       42.000        0.024        0.513
     -34.500       42.500        0.021        0.512
     -34.500       43.000        0.018        0.512
     -34.500       43.500        0.015        0.512
     -34.500       44.000        0.012        0.512
     -34.000      -44.000       -0.001        0.000
     -34.000      -43.500       -0.004        0.000
     -34.000      -43.000       -0.007        0.000
     -34.000      -42.500       -0.010        0.000
     -34.000      -42.000       -0.013        0.000
     -34.000      -41.500       -0.016        0.000
     -34.000      -41.000       -0.019        0.000
     -34.000      -40.500       -0.022        0.000
     -34.000      -40.000       -0.026        0.000
     -34.000      -39.500       -0.029        0.000
     -34.000      -39.000       -0.033        0.000
     -34.000      -38.500       -0.036        0.000
     -34.000      -38.000       -0.040        0.000
     -34.000      -37.500       -0.047        0.000
     -34.000      -37.000       -0.051        0.000
     -34.000      -36.500       -0.055        0.000
     -34.000      -36.000       -0.058        0.000
     -34.000      -35.500       -0.062        0.000
     -34.000      -35.000       -0.065        0.000
     -34.000      -34.500       -0.068        0.000
     -34.000      -34.000       -0.072        0.000
     -34.000      -33.500       -0.075        0.000
     -34.000      -33.000       -0.078        0.000
     -34.000      -32.500       -0.081        0.000
     -34.000      -32.000       -0.083        0.000
     -34.000      -31.500       -0.086        0.000
     -34.000      -31.000       -0.088        0.000
     -34.000      -30.500       -0.092        0.000
     -34.000      -30.000       -0.095        0.000
     -34.000      -29.500       -0.096        0.000
     -34.000      -29.000       -0.098        0.000
     -34.000      -28.500       -0.100        0.000
     -34.000      -28.000       -0.101        0.000
     -34.000      -27.500       -0.103        0.000
     -34.000      -27.000       -0.104        0.000
     -34.000      -26.500       -0.105        0.000
     -34.000      -26.000       -0.106        0.000
     -34.000      -25.500       -0.107        0.000
     -34.000      -25.000       -0.107        0.001
     -34.000      -24.500       -0.108        0.003
     -34.000      -24.000       -0.108        0.006
     -34.000      -23.500       -0.107        0.010
     -34.000      -23.000       -0.105        0.014
     -34.000      -22.500       -0.104        0.019
     -34.000      -22.000       -0.101        0.024
     -34.000      -21.500       -0.098        0.030
     -34.000      -21.000       -0.095        0.036
     -34.000      -20.500       -0.090        0.044
     -34.000      -20.000       -0.084        0.052
     -34.000      -19.500       -0.077        0.062
     -34.000      -19.000       -0.068        0.074
     -34.000      -18.500       -0.059        0.086
     -34.000      -18.000       -0.048        0.100
     -34.000      -17.500       -0.035        0.116
     -34.000      -17.000       -0.005        0.148
     -34.000      -16.500        0.012        0.168
     -34.000      -16.000        0.030        0.189
     -34.000      -15.500        0.049        0.211
     -34.000      -15.000        0.069        0.233
     -34.000      -14.500        0.089        0.256
     -34.000      -14.000        0.109        0.279
     -34.000      -13.500        0.129        0.302
     -34.000      -13.000        0.149        0.325
     -34.000      -12.500        0.167        0.346
     -34.000      -12.000        0.185        0.367
     -34.000      -11.500        0.202        0.387
     -34.000      -11.000        0.217        0.405
     -34.000      -10.500        0.231        0.422
     -34.000      -10.000        0.256        0.449
     -34.000       -9.500        0.266        0.462
     -34.000       -9.000        0.275        0.474
     -34.000       -8.500        0.284        0.486
     -34.000       -8.000        0.292        0.497
     -34.000       -7.500        0.300        0.507
     -34.000       -7.000        0.308        0.519
     -34.000       -6.500        0.317        0.530
     -34.000       -6.000        0.326        0.542
     -34.000       -5.500        0.336        0.555
     -34.000       -5.000        0.347        0.569
     -34.000       -4.500        0.359        0.583
     -34.000       -4.000        0.371        0.599
     -34.000       -3.500        0.385        0.615
     -34.000       -3.000        0.413        0.646
     -34.000       -2.500        0.427        0.663
     -34.000       -2.000        0.441        0.680
     -34.000       -1.500        0.454        0.696
     -34.000       -1.000        0.467        0.712
     -34.000       -0.500        0.479        0.726
     -34.000        0.000        0.490        0.740
     -34.000        0.500        0.499        0.752
     -34.000        1.000        0.507        0.763
     -34.000        1.500        0.514        0.772
     -34.000        2.000        0.519        0.780
     -34.000        2.500        0.523        0.787
     -34.000        3.000        0.525        0.792
     -34.000        3.500        0.527        0.797
     -34.000        4.000        0.527        0.800
     -34.000        4.500        0.526        0.802
     -34.000        5.000        0.526        0.804
     -34.000        5.500        0.525        0.806
     -34.000        6.000        0.524        0.809
     -34.000        6.500        0.524        0.811
     -34.000        7.000        0.525        0.814
     -34.000        7.500        0.525        0.818
     -34.000        8.000        0.527        0.822
     -34.000        8.500        0.528        0.827
     -34.000        9.000        0.530        0.832
     -34.000        9.500        0.532        0.836
     -34.000       10.000        0.534        0.841
     -34.000       10.500        0.534        0.844
     -34.000       11.000        0.532        0.844
     -34.000       11.500        0.528        0.843
     -34.000       12.000        0.521        0.839
     -34.000       12.500        0.511        0.832
     -34.000       13.000        0.499        0.823
     -34.000       13.500        0.484        0.811
     -34.000       14.000        0.466        0.795
     -34.000       14.500        0.445        0.778
     -34.000       15.000        0.423        0.758
     -34.000       15.500        0.399        0.737
     -34.000       16.000        0.374        0.715
     -34.000       16.500        0.348        0.692
     -34.000       17.000        0.323        0.669
     -34.000       17.500        0.275        0.624
     -34.000       18.000        0.253        0.605
     -34.000       18.500        0.232        0.587
     -34.000       19.000        0.214        0.572
     -34.000       19.500        0.197        0.558
     -34.000       20.000        0.182        0.545
     -34.000       20.500        0.169        0.535
     -34.000       21.000        0.157        0.526
     -34.000       21.500        0.147        0.519
     -34.000       22.000        0.138        0.512
     -34.000       22.500        0.130        0.508
     -34.000       23.000        0.123        0.504
     -34.000       23.500        0.117        0.501
     -34.000       24.000        0.108        0.494
     -34.000       24.500        0.104        0.493
     -34.000       25.000        0.101        0.493
     -34.000       25.500        0.099        0.493
     -34.000       26.000        0.096        0.494
     -34.000       26.500        0.094        0.495
     -34.000       27.000        0.092        0.496
     -34.000       27.500        0.090        0.497
     -34.000       28.000        0.088        0.497
     -34.000       28.500        0.086        0.498
     -34.000       29.000        0.084        0.499
     -34.000       29.500        0.082        0.500
     -34.000       30.000        0.080        0.500
     -34.000       30.500        0.077        0.501
     -34.000       31.000        0.072        0.498
     -34.000       31.500        0.070        0.499
     -34.000       32.000        0.067        0.499
     -34.000       32.500        0.065        0.500
     -34.000       33.000        0.063        0.500
     -34.000       33.500        0.060        0.501
     -34.000       34.000        0.058        0.501
     -34.000       34.500        0.056        0.502
     -34.000       35.000        0.054        0.503
     -34.000       35.500        0.053        0.504
     -34.000       36.000        0.051        0.505
     -34.000       36.500        0.049        0.507
     -34.000       37.000        0.048        0.508
     -34.000       37.500        0.046        0.509
     -34.000       38.000        0.043        0.509
     -34.000       38.500        0.041        0.510
     -34.000       39.000        0.039        0.511
     -34.000       39.500        0.037        0.512
     -34.000       40.000        0.035        0.512
     -34.000       40.500        0.033        0.513
     -34.000       41.000        0.030        0.513
     -34.000       41.500        0.027        0.513
     -34.000       42.000        0.024        0.513
     -34.000       42.500        0.021        0.512
     -34.000       43.000        0.018        0.512
     -34.000       43.500        0.014        0.512
     -34.000       44.000        0.011        0.511
     -33.500      -44.000       -0.001        0.000
     -33.500      -43.500       -0.004        0.000
     -33.500      -43.000       -0.007        0.000
     -33.500      -42.500       -0.010        0.000
     -33.500      -42.000       -0.013        0.000
     -33.500      -41.500       -0.016        0.000
     -33.500      -41.000       -0.019        0.000
     -33.500      -40.500       -0.022        0.000
     -33.500      -40.000       -0.025        0.000
     -33.500      -39.500       -0.029        0.000
     -33.500      -39.000       -0.032        0.000
     -33.500      -38.500       -0.036        0.000
     -33.500      -38.000       -0.039        0.000
     -33.500      -37.500       -0.047        0.000
     -33.500      -37.000       -0.050        0.000
     -33.500      -36.500       -0.054        0.000
     -33.500      -36.000       -0.058        0.000
     -33.500      -35.500       -0.061        0.000
     -33.500      -35.000       -0.065        0.000
     -33.500      -34.500       -0.068        0.000
     -33.500      -34.000       -0.071        0.000
     -33.500      -33.500       -0.074        0.000
     -33.500      -33.000       -0.078        0.000
     -33.500      -32.500       -0.080        0.000
     -33.500      -32.000       -0.083        0.000
     -33.500      -31.500       -0.086        0.000
     -33.500      -31.000       -0.088        0.000
     -33.500      -30.500       -0.093        0.000
     -33.500      -30.000       -0.095        0.000
     -33.500      -29.500       -0.097        0.000
     -33.500      -29.000       -0.099        0.000
     -33.500      -28.500       -0.100        0.000
     -33.500      -28.000       -0.102        0.000
     -33.500      -27.500       -0.103        0.000
     -33.500      -27.000       -0.105        0.000
     -33.500      -26.500       -0.106        0.000
     -33.500      -26.000       -0.106        0.000
     -33.500      -25.500       -0.107        0.000
     -33.500      -25.000       -0.108        0.000
     -33.500      -24.500       -0.108        0.003
     -33.500      -24.000       -0.108        0.006
     -33.500      -23.500       -0.106        0.010
     -33.500      -23.000       -0.105        0.014
     -33.500      -22.500       -0.103        0.019
     -33.500      -22.000       -0.101        0.024
     -33.500      -21.500       -0.098        0.030
     -33.500      -21.000       -0.094        0.037
     -33.500      -20.500       -0.089        0.045
     -33.500      -20.000       -0.082        0.054
     -33.500      -19.500       -0.075        0.064
     -33.500      -19.000       -0.066        0.076
     -33.500      -18.500       -0.056        0.089
     -33.500      -18.000       -0.044        0.103
     -33.500      -17.500       -0.031        0.119
     -33.500      -17.000       -0.000        0.153
     -33.500      -16.500        0.017        0.174
     -33.500      -16.000        0.036        0.195
     -33.500      -15.500        0.055        0.217
     -33.500      -15.000        0.075        0.240
     -33.500      -14.500        0.096        0.263
     -33.500      -14.000        0.116        0.287
     -33.500      -13.500        0.136        0.310
     -33.500      -13.000        0.156        0.332
     -33.500      -12.500        0.175        0.353
     -33.500      -12.000        0.192        0.374
     -33.500      -11.500        0.209        0.393
     -33.500      -11.000        0.224        0.411
     -33.500      -10.500        0.237        0.428
     -33.500      -10.000        0.261        0.454
     -33.500       -9.500        0.270        0.466
     -33.500       -9.000        0.279        0.478
     -33.500       -8.500        0.287        0.489
     -33.500       -8.000        0.295        0.499
     -33.500       -7.500        0.302        0.510
     -33.500       -7.000        0.310        0.521
     -33.500       -6.500        0.319        0.532
     -33.500       -6.000        0.328        0.543
     -33.500       -5.500        0.337        0.556
     -33.500       -5.000        0.348        0.570
     -33.500       -4.500        0.360        0.584
     -33.500       -4.000        0.372        0.599
     -33.500       -3.500        0.385        0.616
     -33.500       -3.000        0.414        0.647
     -33.500       -2.500        0.428        0.664
     -33.500       -2.000        0.442        0.681
     -33.500       -1.500        0.456        0.697
     -33.500       -1.000        0.469        0.713
     -33.500       -0.500        0.481        0.728
     -33.500        0.000        0.492        0.742
     -33.500        0.500        0.502        0.755
     -33.500        1.000        0.510        0.766
     -33.500        1.500        0.517        0.775
     -33.500        2.000        0.522        0.783
     -33.500        2.500        0.526        0.790
     -33.500        3.000        0.529        0.796
     -33.500        3.500        0.531        0.801
     -33.500        4.000        0.531        0.804
     -33.500        4.500        0.531        0.807
     -33.500        5.000        0.531        0.809
     -33.500        5.500        0.530        0.812
     -33.500        6.000        0.530        0.814
     -33.500        6.500        0.531        0.818
     -33.500        7.000        0.532        0.821
     -33.500        7.500        0.533        0.826
     -33.500        8.000        0.535        0.830
     -33.500        8.500        0.537        0.836
     -33.500        9.000        0.540        0.841
     -33.500        9.500        0.542        0.846
     -33.500       10.000        0.544        0.851
     -33.500       10.500        0.545        0.855
     -33.500       11.000        0.543        0.855
     -33.500       11.500        0.538        0.854
     -33.500       12.000        0.531        0.849
     -33.500       12.500        0.521        0.842
     -33.500       13.000        0.508        0.831
     -33.500       13.500        0.491        0.818
     -33.500       14.000        0.472        0.802
     -33.500       14.500        0.450        0.783
     -33.500       15.000        0.426        0.761
     -33.500       15.500        0.401        0.739
     -33.500       16.000        0.374        0.715
     -33.500       16.500        0.348        0.691
     -33.500       17.000        0.321        0.668
     -33.500       17.500        0.271        0.620
     -33.500       18.000        0.248        0.601
     -33.500       18.500        0.228        0.583
     -33.500       19.000        0.209        0.567
     -33.500       19.500        0.192        0.553
     -33.500       20.000        0.177        0.541
     -33.500       20.500        0.164        0.531
     -33.500       21.000        0.153        0.522
     -33.500       21.500        0.143        0.515
     -33.500       22.000        0.135        0.510
     -33.500       22.500        0.127        0.505
     -33.500       23.000        0.121        0.502
     -33.500       23.500        0.116        0.499
     -33.500       24.000        0.107        0.493
     -33.500       24.500        0.103        0.493
     -33.500       25.000        0.100        0.492
     -33.500       25.500        0.098        0.492
     -33.500       26.000        0.095        0.493
     -33.500       26.500        0.093        0.494
     -33.500       27.000        0.091        0.494
     -33.500       27.500        0.089        0.495
     -33.500       28.000        0.087        0.496
     -33.500       28.500        0.085        0.497
     -33.500       29.000        0.083        0.497
     -33.500       29.500        0.080        0.498
     -33.500       30.000        0.078        0.498
     -33.500       30.500        0.076        0.499
     -33.500       31.000        0.071        0.497
     -33.500       31.500        0.068        0.497
     -33.500       32.000        0.066        0.498
     -33.500       32.500        0.063        0.498
     -33.500       33.000        0.061        0.499
     -33.500       33.500        0.059        0.499
     -33.500       34.000        0.057        0.500
     -33.500       34.500        0.055        0.501
     -33.500       35.000        0.053        0.502
     -33.500       35.500        0.052        0.503
     -33.500       36.000        0.050        0.505
     -33.500       36.500        0.049        0.506
     -33.500       37.000        0.047        0.508
     -33.500       37.500        0.046        0.509
     -33.500       38.000        0.043        0.509
     -33.500       38.500        0.041        0.510
     -33.500       39.000        0.039        0.511
     -33.500       39.500        0.037        0.512
     -33.500       40.000        0.035        0.512
     -33.500       40.500        0.033        0.513
     -33.500       41.000        0.030        0.513
     -33.500       41.500        0.027        0.513
     -33.500       42.000        0.024        0.513
     -33.500       42.500        0.021        0.512
     -33.500       43.000        0.018        0.512
     -33.500       43.500        0.014        0.511
     -33.500       44.000        0.011        0.511
     -33.000      -44.000       -0.001        0.000
     -33.000      -43.500       -0.004        0.000
     -33.000      -43.000       -0.007        0.000
     -33.000      -42.500       -0.010        0.000
     -33.000      -42.000       -0.012        0.000
     -33.000      -41.500       -0.015        0.000
     -33.000      -41.000       -0.018        0.000
     -33.000      -40.500       -0.021        0.000
     -33.000      -40.000       -0.025        0.000
     -33.000      -39.500       -0.028        0.000
     -33.000      -39.000       -0.032        0.000
     -33.000      -38.500       -0.035        0.000
     -33.000      -38.000       -0.039        0.000
     -33.000      -37.500       -0.046        0.000
     -33.000      -37.000       -0.050        0.000
     -33.000      -36.500       -0.053        0.000
     -33.000      -36.000       -0.057        0.000
     -33.000      -35.500       -0.060        0.000
     -33.000      -35.000       -0.064        0.000
     -33.000      -34.500       -0.067        0.000
     -33.000      -34.000       -0.071        0.000
     -33.000      -33.500       -0.074        0.000
     -33.000      -33.000       -0.077        0.000
     -33.000      -32.500       -0.080        0.000
     -33.000      -32.000       -0.083        0.000
     -33.000      -31.500       -0.086        0.000
     -33.000      -31.000       -0.089        0.000
     -33.000      -30.500       -0.093        0.000
     -33.000      -30.000       -0.096        0.000
     -33.000      -29.500       -0.098        0.000
     -33.000      -29.000       -0.099        0.000
     -33.000      -28.500       -0.101        0.000
     -33.000      -28.000       -0.103        0.000
     -33.000      -27.500       -0.104        0.000
     -33.000      -27.000       -0.105        0.000
     -33.000      -26.500       -0.106        0.000
     -33.000      -26.000       -0.107        0.000
     -33.000      -25.500       -0.107        0.000
     -33.000      -25.000       -0.108        0.000
     -33.000      -24.500       -0.108        0.003
     -33.000      -24.000       -0.108        0.006
     -33.000      -23.500       -0.106        0.010
     -33.000      -23.000       -0.105        0.015
     -33.000      -22.500       -0.103        0.019
     -33.000      -22.000       -0.100        0.025
     -33.000      -21.500       -0.097        0.031
     -33.000      -21.000       -0.093        0.038
     -33.000      -20.500       -0.088        0.046
     -33.000      -20.000       -0.081        0.055
     -33.000      -19.500       -0.074        0.066
     -33.000      -19.000       -0.064        0.078
     -33.000      -18.500       -0.054        0.091
     -33.000      -18.000       -0.042        0.106
     -33.000      -17.500       -0.028        0.123
     -33.000      -17.000        0.004        0.158
     -33.000      -16.500        0.022        0.178
     -33.000      -16.000        0.041        0.200
     -33.000      -15.500        0.061        0.223
     -33.000      -15.000        0.082        0.246
     -33.000      -14.500        0.102        0.270
     -33.000      -14.000        0.123        0.293
     -33.000      -13.500        0.143        0.316
     -33.000      -13.000        0.163        0.339
     -33.000      -12.500        0.181        0.360
     -33.000      -12.000        0.199        0.381
     -33.000      -11.500        0.215        0.400
     -33.000      -11.000        0.230        0.417
     -33.000      -10.500        0.243        0.433
     -33.000      -10.000        0.265        0.458
     -33.000       -9.500        0.274        0.470
     -33.000       -9.000        0.283        0.481
     -33.000       -8.500        0.290        0.492
     -33.000       -8.000        0.297        0.502
     -33.000       -7.500        0.305        0.512
     -33.000       -7.000        0.312        0.522
     -33.000       -6.500        0.320        0.533
     -33.000       -6.000        0.329        0.545
     -33.000       -5.500        0.338        0.557
     -33.000       -5.000        0.349        0.570
     -33.000       -4.500        0.360        0.585
     -33.000       -4.000        0.373        0.600
     -33.000       -3.500        0.386        0.616
     -33.000       -3.000        0.414        0.647
     -33.000       -2.500        0.429        0.665
     -33.000       -2.000        0.443        0.682
     -33.000       -1.500        0.457        0.699
     -33.000       -1.000        0.471        0.715
     -33.000       -0.500        0.483        0.730
     -33.000        0.000        0.494        0.744
     -33.000        0.500        0.504        0.757
     -33.000        1.000        0.512        0.768
     -33.000        1.500        0.519        0.778
     -33.000        2.000        0.525        0.786
     -33.000        2.500        0.529        0.793
     -33.000        3.000        0.532        0.799
     -33.000        3.500        0.535        0.805
     -33.000        4.000        0.535        0.808
     -33.000        4.500        0.536        0.811
     -33.000        5.000        0.536        0.814
     -33.000        5.500        0.536        0.817
     -33.000        6.000        0.536        0.820
     -33.000        6.500        0.537        0.824
     -33.000        7.000        0.539        0.829
     -33.000        7.500        0.541        0.834
     -33.000        8.000        0.543        0.839
     -33.000        8.500        0.546        0.845
     -33.000        9.000        0.550        0.851
     -33.000        9.500        0.553        0.857
     -33.000       10.000        0.555        0.862
     -33.000       10.500        0.556        0.866
     -33.000       11.000        0.554        0.867
     -33.000       11.500        0.549        0.865
     -33.000       12.000        0.542        0.860
     -33.000       12.500        0.531        0.852
     -33.000       13.000        0.517        0.841
     -33.000       13.500        0.500        0.827
     -33.000       14.000        0.480        0.809
     -33.000       14.500        0.457        0.789
     -33.000       15.000        0.431        0.767
     -33.000       15.500        0.405        0.743
     -33.000       16.000        0.377        0.718
     -33.000       16.500        0.349        0.693
     -33.000       17.000        0.321        0.668
     -33.000       17.500        0.270        0.619
     -33.000       18.000        0.246        0.599
     -33.000       18.500        0.225        0.580
     -33.000       19.000        0.206        0.564
     -33.000       19.500        0.190        0.550
     -33.000       20.000        0.175        0.538
     -33.000       20.500        0.162        0.528
     -33.000       21.000        0.151        0.520
     -33.000       21.500        0.141        0.513
     -33.000       22.000        0.133        0.508
     -33.000       22.500        0.126        0.504
     -33.000       23.000        0.120        0.501
     -33.000       23.500        0.115        0.498
     -33.000       24.000        0.106        0.493
     -33.000       24.500        0.103        0.492
     -33.000       25.000        0.100        0.492
     -33.000       25.500        0.097        0.492
     -33.000       26.000        0.094        0.492
     -33.000       26.500        0.092        0.493
     -33.000       27.000        0.090        0.493
     -33.000       27.500        0.088        0.494
     -33.000       28.000        0.086        0.495
     -33.000       28.500        0.083        0.495
     -33.000       29.000        0.081        0.496
     -33.000       29.500        0.079        0.496
     -33.000       30.000        0.076        0.497
     -33.000       30.500        0.074        0.497
     -33.000       31.000        0.069        0.495
     -33.000       31.500        0.067        0.496
     -33.000       32.000        0.064        0.496
